-9.373743937648281177e-01 -1.338761644572265652e+00 -1.232067126353939113e+00 -2.330835452772982430e-01 3.471604009657416334e-01 -5.616657507498550306e-01 4.918230658991168958e-01 -8.164912591175986778e-01 8.947039626767722131e-01 1.668376937628459400e+00 8.867253426439185571e-01 -1.254471498991387157e-01 -4.944306144451425800e-01 -1.381910031832964458e+00 1.338963721781203819e+00 -8.907773943291170948e-02 3.830565565524205462e-01 -2.161254280788693985e-02 -3.777298502186322016e-01 -2.237061818474503361e-01 5.031413684600504199e-01 -4.733976508663637617e-01 -3.350506073323218648e-02 -5.019112612247437211e-01 -4.364398593014297001e-01 -9.051517152310559755e-01 -1.965715599372011568e-01 9.686366531371142230e-01 7.561165387912582858e-01 7.155217663961342955e-01 6.977874421522548554e-01 8.913988891037465390e-01 4.063310330397773562e-01 6.058897767153329506e-01 -3.682944149364812958e-01 3.628598219995287089e-01 -1.175134779670807261e-01 -1.913011119884092393e-01 5.420351222283537052e-01 -3.302288310330570575e-01 -9.984005977557794398e-02 -3.003119320815686444e-01 -5.751826410957714408e-01 5.164831377998670980e-01 -2.404306319698153449e-01 5.987679700706943775e-01 4.980642768534171427e-01 -1.237909251970045060e-01 1.204172380996310077e+00 -8.765971682030403445e-01 8.740185289119197787e-01 -6.078536269426724203e-01 1.643783173989436797e-04 -1.932567682485260285e-01 -1.966993170318959844e-02 9.424457314731499169e-02 -1.333165602079506851e+00 -3.147000910901673332e-01 1.038452826104754978e+00 -4.901893355181761724e-01 -7.303924949970076463e-01 -1.441872604687555182e-01 1.842038082923536380e-01 -3.473305384758478831e-01 -6.508709587684112507e-02 -1.385049600632608513e+00 -6.643490948004767693e-01 4.304077764644280713e-01 -9.366633805652968547e-01 1.246196778474860878e+00 -5.306759564709276900e-01 -7.195735993211485049e-01 7.707202698223140913e-02 8.354916275829250560e-01 -4.719956215037846015e-01 -5.894284983983849591e-01 6.931692943179860178e-01 -7.495543204907850754e-01 1.071527129705442505e+00 -2.400999681463805713e-01 -8.796229099027462750e-01 -3.522135536125778899e-01 -3.212406922199726855e-03 -9.632686210208999400e-01 1.824771706902758930e-02 -2.380106550845351165e-02 1.155060837846966448e+00 1.019210264403048960e+00 -1.713195869221515732e-01 -1.266573098706398892e-01 7.565644120568786324e-01 3.199407073514298760e-01 -6.843678331885842958e-01 6.318190350301521319e-01 -1.158217406883066625e+00 -1.220992192801960696e+00 1.419863090860184474e-01 5.779667825380762070e-01 2.685685004568451051e-01 2.001083007937942693e-01 -1.036187020086732025e+00 -1.110135148089278267e+00 1.028466303113392488e+00 4.575663527562821575e-01 -1.256589217068454500e+00 -1.139776571041003494e+00 -9.758999436143973583e-01 -7.157743229639172977e-01 2.332070938104766067e-01 2.068468622611180918e-01 -1.351834806323821692e-01 4.283102840874752348e-01 1.381283951749019190e+00 9.860923119068806808e-02 5.569018008422313981e-01 -6.079332573340482382e-01 1.478638793348384106e-01 -4.171330512315029604e-01 -9.082089591018513985e-01 -1.049290791613333829e+00 6.878394926157378464e-01 -3.775551206257532488e-01 1.352887332609517268e-01 -1.162427379261242510e+00 4.230975417013976836e-01 -2.430839872656862799e-01 8.687980720361929698e-01 1.384606020122280678e-01 -7.373822086442520796e-01 -7.331712773887798518e-01 -1.243219286107355714e-01 -1.004044460617342649e+00 4.538234233966206288e-01 -1.718686504253209846e-01 1.361261418183462302e-01 -1.908859802273009665e+00 -6.780235055172938452e-01 8.697306183275713698e-01 1.175715168130083699e+00 -4.181057686010556385e-01 1.509307776051765915e-01 -5.326162154480486022e-01 6.253049156545301690e-01 4.209921921054997074e-01 -7.950968485920164447e-03 -3.500719869414478103e-01 1.719269981163107086e-01 -1.539942407213186648e+00 8.983966027024373746e-01 3.397846969627200120e-01 -1.498080980966499942e-01 -5.513056510914152719e-01 5.390646061112086551e-01 -6.768806268308757979e-01 -4.579160333586449472e-01 3.167347024166192182e-01 6.213200029589994733e-01 -6.689026790176599846e-01 4.297798978459760333e-01 -1.090051793096948218e+00 -9.535268343370140176e-01 -5.774399897771879120e-01 3.947929677085234568e-01 -1.095411236267857635e+00 4.008565341409436322e-01 -5.857280669527280548e-01 -1.692089197759205910e-01 4.959932780732653756e-02 -1.290244525578341905e+00 -4.331041987604505872e-01 -9.851016474924888244e-02 2.861238551185088519e-01 8.969948089632012733e-02 4.797017622823401273e-01 -1.460589525002250200e-01 4.856517477408541783e-01 -1.948209065723822686e-01 4.325431432627143691e-01 1.390574205695875865e-01 -2.537397803183791267e-01 2.050567198627759047e-01 -8.296089387741618637e-01 -1.192242212294183146e+00 1.428973545076966278e+00 8.676353738141083793e-01 1.034315626464038934e-01 3.278193668585453469e-01 6.702712085933492103e-01 -5.046355187103177542e-01 -9.390108936933472261e-01 -1.031360949183416142e+00 -2.808215772125624010e-01 -1.071521609300204014e+00 4.037289342851318463e-01 -2.713266047225599276e-01 -3.245619994261923491e-01 -3.182577888807148203e-01 -4.882939396672244525e-01 -7.158992083724353694e-01 -2.096816164949504291e-01 -1.059462241724191678e+00 2.462975300703870440e-01 1.260213630671872531e+00 6.289838176808265624e-01 -1.828565148060749823e-01 8.246103944874261238e-01 1.992392698733888839e-03 -2.621734540614329909e-02 -1.056810087253622799e+00 7.318830886801506175e-01 1.303467636904608540e+00 -2.845508519395189562e-01 9.797080987756719150e-02 7.480416841041011011e-01 7.041498492113970054e-01 -1.059126642660324302e+00 1.193131028275120187e+00 3.401873683707170026e-01 4.119431563450841605e-01 5.498001516929326149e-01 1.131090594775768093e-01 1.245003451920662529e+00 6.180985179697862097e-02 -1.214855938277036168e-01 -3.701194524056862778e-01 3.603461262273643384e-01 -2.611333240969438418e-01 -6.994767370049155275e-01 -4.435875746316862989e-01 8.224827315086233881e-01 7.698187613567153420e-01 1.295206514942128240e-01 -8.109042637404682841e-02 6.850149325789004484e-01 1.056357786316109326e+00 -9.863951653088495197e-01 -1.650400175234679190e-01 -7.710773600644916792e-01 8.263301083666019231e-01 5.065069119110781060e-01 2.800354989963020902e-01 6.397150128434406779e-01 -8.455504230070558513e-01 7.763970934498024001e-02 4.357123901509432073e-01 7.593433170929415610e-01 -5.129529832096455660e-02 -1.187683638778401912e-01 -6.153694751414676700e-01 -8.276613778636194851e-01 -6.558137695409703705e-01 -1.296617427895467412e+00 -5.697907266170131324e-01 -1.346655219873426068e+00 7.619335397221874695e-01 -2.514039711751612227e-01 4.446307982869682762e-01 2.007856041254992285e-01 1.395711390912463545e-01 5.460811602190305258e-01 -6.879791263820466130e-01 4.817298799680493904e-01 1.580825917249095047e+00 -1.029893848265126977e+00 4.539988785893760981e-01 7.771767941820348913e-01 -8.383649137548904173e-01 -1.113441262235006723e+00 2.210514413694183999e-01 2.056053105041381196e-02 9.709580312759331644e-01 3.896545700293916475e-02 7.958402995328560381e-02 4.026172614011060968e-01 -3.287544218455470402e-01 9.195936722363385885e-01 -1.141589505375588676e+00 -1.696329318440323031e-01 -2.473794167643597608e-01 -1.355131967931583636e+00 8.939197359005136567e-01 1.009352518439493807e+00 -4.463882435939101057e-01 -4.619015017913902232e-01 5.718286821627392991e-01 1.389363389639932528e-02 -2.563856835163705328e-01 -1.020283637183131864e+00 2.604618849162813055e-01 4.898544050002028860e-01 1.067612332457554158e+00
-1.728090784430910687e-01 -7.077681534815124520e-01 3.691417088676543501e-01 1.209104894328263541e-01 -7.200894348711053272e-01 2.319671620635066212e-01 -9.039109760664719717e-01 8.816008372533511439e-01 1.039356533340020317e+00 5.949308344501897938e-01 -1.015226455886441004e+00 3.072005408451823349e-01 -6.622704239615662125e-02 -1.251286435849680301e-01 1.630711057960786692e-01 4.790347617211576647e-01 3.431594259469458730e-01 -3.559940955660997886e-01 -2.407734809332508219e-01 -4.795182979497897291e-01 6.859094737300377442e-01 -7.164620690162772920e-01 7.824211328097094853e-01 -2.721262234066272878e-01 -1.033273673719728336e+00 -5.106941237961538649e-01 -9.354245839559636178e-01 -9.277011509788928301e-01 -1.130941946591842884e+00 2.549601322421866656e-01 4.145168340720316036e-01 -6.661394637693150989e-01 -6.182275712977806092e-01 -1.101135633330834862e+00 -1.214878598917326746e+00 -1.068720420207506655e-01 -8.528981878303103503e-01 -7.454422655955474930e-01 3.936883585121597195e-01 2.305036243444949229e-01 -1.055524459339839627e+00 -8.622356942981914685e-01 8.722021232613859087e-01 9.084877589839278622e-01 -1.782842108364842970e-01 5.829754025285691643e-01 -8.969950521272113120e-02 9.056500286966591151e-01 -5.422187138134169082e-01 2.954486145875608871e-01 1.453767021786780411e-01 -5.898818548648347981e-01 -7.565095406626966001e-01 1.077384242568201866e+00 -1.121604701399738113e+00 4.980895804514073877e-02 -2.398883150058407077e-01 1.223185676361105090e+00 1.259069821040591952e+00 -1.085836714415827187e+00 6.394763133065598515e-01 4.578420735158560961e-01 4.475569639088909368e-01 -3.303137504628138599e-01 -1.807463652328719639e-01 -2.093745286202205180e-01 -8.814170067560773703e-01 2.972502278549444821e-01 9.619962705008803239e-01 3.231719845344224185e-01 -3.373946526168523086e-01 -1.007407362940973439e+00 1.404557584457238328e-01 5.160939723576195570e-01 7.926760268067253867e-02 3.344510902924128226e-01 -6.749078296366752827e-01 -5.752780972663979614e-02 -1.460446916394648742e-01 1.926394469907055929e-01 1.160312213546575544e+00 -1.116115596832803147e+00 -4.189204891423705113e-01 1.793945254027344838e-01 -8.142871969613687533e-01 -5.272791787891244475e-01 -2.791520209785209872e-01 7.010844740852249790e-02 -2.991936497994445165e-01 2.022061588179650260e-01 -2.276965660103807687e-01 4.554731340768835429e-02 -3.642130882322924257e-01 -4.747931997880799337e-01 -8.523624728810643703e-01 1.343330979213578358e+00 5.305061646636399786e-01 -3.081438651129627670e-01 2.175646630524800951e-01 -8.894341302878797095e-02 -7.709617160628011723e-01 -7.805690378374434690e-01 4.253045577570450098e-01 -2.889897234195787923e-01 1.147995651958785723e+00 4.489625721441617423e-01 -2.755729101447590979e-01 6.393145568749472041e-01 -7.859962020185117249e-01 -6.047872097159677773e-01 -7.855315309837568316e-01 1.209624409316284899e+00 -2.752767726866629516e-01 5.385194387302153496e-01 -1.041950619816891521e+00 5.969891563599826201e-01 -1.406024857225307845e-01 1.117475753975897934e+00 -2.105270206655255605e-01 4.062490837948966593e-01 -5.835563523599429647e-03 8.268936058174669590e-02 3.896332280715251173e-01 2.594546696919816653e-01 -2.188628544042386381e-01 -2.991454587352275207e-01 6.497448217004625493e-01 4.692814676322397682e-01 -6.067478913641271010e-01 -3.451998149568797913e-01 3.773921975319395883e-01 7.629469158793323880e-01 3.466215606819368911e-01 9.108238194351542250e-01 9.224764552411504059e-01 -5.549766901262852548e-01 3.566602676551338114e-01 4.534968991392380848e-03 -7.342462392598073651e-01 -4.818518392689268293e-01 9.942486893319099628e-02 1.147340689510810696e-01 -7.155154847675585517e-01 -6.700929176631528206e-01 -9.023204621383484891e-01 -1.568939748216771624e-01 -6.692467697239551372e-02 -6.309984093156907337e-01 -5.341042491834799844e-01 -6.612667884633427473e-01 2.766384318040285284e-01 1.007097923425120944e-01 8.466951956355017739e-02 1.023852869440682184e-01 -3.995360108406569855e-01 -6.001532490651458746e-02 -3.237143367502201552e-01 -4.765581889547060856e-01 2.980674291509951557e-01 8.704333900660653489e-01 6.065597679118112096e-01 -5.964670995204993664e-01 -6.783727400390383577e-01 2.041879620058495992e-01 -2.300215754003664959e-02 8.335226060351305089e-01 -7.895023747356442190e-01 6.312440936574239547e-01 -4.292095126618353240e-01 7.692489196420680964e-01 -2.975855791123008798e-01 -9.053491397798407725e-01 4.373402221357077790e-01 9.594316800701860326e-02 -8.145546969129255910e-01 -3.550243114090870789e-01 -1.358130523624178743e+00 -5.072013644378808861e-01 -2.693345356086742082e-01 1.173837022883797099e+00 6.444489465441017861e-01 6.575196826741507294e-01 -1.191619975048840291e-01 7.549256992914977760e-01 -3.701405750843994036e-01 -3.047700325152086775e-01 -1.083562734253273652e+00 -4.690521897679789665e-01 4.840484999725190862e-01 2.889782342615631605e-01 -8.944179837468109184e-01 1.037011836529777131e+00 -3.608687626509806678e-01 5.318607014875662564e-01 -1.601075877281856186e-01 1.772286146565032194e-01 1.647445187331491312e-01 1.530923806746380123e-01 -6.467147667702558556e-01 4.940743462983872292e-02 -9.859932239693034450e-01 -1.259721644539047725e-01 8.864429638387948118e-02 9.452991216221073856e-02 6.477612909766665705e-01 7.933448978303901666e-02 -1.321240425553888431e-01 -9.528846885077489892e-01 4.370812228099772989e-01 5.147972200111410324e-01 1.837912520987104725e-01 -1.401957058158768699e-01 1.001832764870801862e+00 -5.990209089730417213e-01 6.061758931463554489e-01 6.511849472886221957e-01 -4.705141685836261023e-01 -3.492265176380506819e-01 4.623034934774191140e-01 -6.060133743472985168e-01 -8.728403530997608240e-01 7.772045572834697380e-02 2.739613583295078536e-01 -5.167340908567094049e-01 -4.811723999207881963e-01 7.677155133465793924e-01 -2.771398871837757460e-01 8.450695694258854029e-01 -4.141509759781294986e-01 -7.552352592350863869e-01 -7.216962696922496479e-01 -1.022699307287508796e+00 -9.747546215994645769e-01 2.998982259674997652e-01 -6.227087885806247697e-02 1.011183071213500595e+00 -3.649918387613122067e-02 1.347966699460894757e+00 -1.617298831197680753e-01 8.419524637394515398e-01 -7.446409627131905795e-02 -5.863240103255022706e-02 1.066978373328503760e-01 -1.219293911784357531e+00 -1.596800149651442791e-01 -6.385625703449629986e-01 4.356409295367811851e-01 -4.638252737586274765e-01 1.821986321028330469e-01 -3.380917552012917549e-01 3.507199765431588956e-01 -7.570858273615744816e-01 -6.349751228058191366e-01 7.967323571219258049e-01 -9.620076807606572356e-01 -3.122624796757541565e-01 3.140762722554202302e-01 2.571854184730607701e-02 3.043687584031901650e-01 8.455750821583631893e-01 8.154006516907342794e-01 3.588923042227374904e-01 -2.292682374934833511e-01 8.035352115704716969e-01 1.000597005967980707e-01 1.754409727610884984e-01 9.654961908060407660e-01 1.148271770215931881e-01 7.831618657135348549e-01 1.891953156769138888e-01 8.406595218049297547e-01 -1.025920737276203171e-01 5.863688738097472264e-01 6.638790122972443308e-01 9.123663529889248780e-01 -5.219511858132435123e-01 8.719833256330788984e-01 -5.846734405282948410e-01 3.242063022948150630e-01 3.922160030932884123e-01 -2.448729498372224367e-01 -1.359021688871426825e-01 7.848571014960757930e-01 9.980203895536896574e-01 8.174606861092459376e-02 -8.875714806135458490e-01 4.001678705650874579e-01 3.083504997895921695e-01 6.704654670504621439e-02 5.609624414107614587e-01 -4.832399801279133045e-01
-3.614966546378421408e-01 -1.784799225898434094e-01 -1.501325656686977594e-01 -1.255792741184798222e+00 -1.176379006514710612e+00 6.129231267915794534e-01 -6.428352198745143076e-01 5.968359247527761369e-01 -8.508531919804689370e-01 3.589995478133982676e-01 -3.876771540152022522e-01 4.294668820533827924e-01 -3.236825392277972724e-02 3.581563851438108737e-01 5.618870904000353855e-02 3.423595035866605074e-01 -1.852944617122426751e-01 1.172652030828287284e+00 5.758595721797864497e-01 4.308845889781715566e-01 -5.478473764860211093e-01 -6.119415542953345888e-01 1.430204009623754935e+00 8.916857992379580988e-01 -2.341333472053176434e-01 -1.022449125745883869e+00 8.567135324208631220e-01 -6.001441026461629136e-01 -6.498000895619335804e-01 4.252652152227190396e-01 -1.563015095111457697e-01 -2.120922663824605439e-02 -9.133274686493644268e-01 -5.232381146246224413e-01 6.234045854021084132e-01 3.080220602525076123e-01 -5.634944079439742071e-01 9.840567592096769456e-01 2.138035190353652359e-01 6.005981030862742598e-01 -9.393826334938181200e-01 -1.024366411267874533e+00 -6.868784000750901564e-01 3.279929718499686175e-01 -8.728982333967892915e-01 4.997774261224967041e-01 4.016774380963454849e-01 5.138762214619517765e-01 4.599606259181109325e-01 -1.500576391670178089e-01 1.194303540564001009e+00 6.814448821963586811e-01 2.247106780649617275e-01 -5.064101062733125103e-01 -7.570498571748670580e-01 3.120848095058162061e-02 -3.966430955643159284e-01 -9.478810476260143281e-01 -2.842779476260293148e-02 3.387581624834242744e-01 2.699134102350858860e-03 -6.160558875119118705e-01 -1.756327789383365645e-01 -6.103523055804899872e-02 3.872684601535786308e-01 -2.717915756198232557e-01 2.554630812867957901e-01 4.591224169795979915e-01 1.108385228870711892e+00 4.403083129826266817e-01 2.835128413244008549e-01 -2.330260846499683514e-01 2.816784995835258654e-01 2.826412260495919648e-01 -1.004807036668232456e+00 9.334525739264643018e-01 5.838162350652140731e-01 -7.339779819896538049e-01 -2.291207751722288133e-01 -1.006376388758655427e+00 -3.462727183038845080e-01 -1.216591439593431301e-01 4.628568451805001871e-01 4.550198452050301934e-01 -1.112448771701149530e+00 1.470301816934834749e-01 -1.152950739467067720e+00 -1.111834242960051844e+00 9.521799672667156100e-01 1.520736320590973800e-01 2.729461378663248367e-02 -2.819980057403055351e-01 -1.256670497556824584e+00 -2.615480000424230123e-01 -2.260960563541836166e-01 -1.966419355177296546e-01 -8.588295441980651201e-01 1.671185579633214791e-01 7.963337302846775767e-01 3.326422623940887280e-01 1.054207617016208909e+00 4.690558993616065209e-01 5.946214323317602912e-02 -2.266057386903903847e-01 1.406065233516583420e-02 -1.009661790583256780e+00 3.053806204431008808e-01 -1.297338631996832192e-01 3.925145930338675426e-01 2.206664627012771551e-01 -7.703552120654101332e-01 -3.970606521245483855e-01 -1.161751406152915361e-01 -2.806814201204412829e-01 -3.481801112504971929e-01 1.013970111820344355e+00 -1.173377169634211986e-01 -5.495139868309121267e-01 1.076202530606526153e+00 -1.551509063692888546e-01 2.815632872749434523e-01 -3.251744595076644373e-02 4.181841274165450928e-01 -1.812293236547600772e-01 -1.114927019645773232e+00 -1.073899342467918627e+00 1.450247685184868351e-01 6.049171234293646560e-01 -4.894521528827820434e-01 1.239767535784856572e-01 -5.884589384021592373e-01 1.922055540599614532e-01 -8.364693733382561058e-01 -1.224790604888243983e+00 -1.405548303840331859e-01 1.322082441888931648e+00 -1.479127372991297928e-01 -2.403648299365130914e-01 1.204601810038253840e-01 4.597500317260599240e-02 -6.022255423699884869e-01 6.624580275832551157e-01 9.352010875738439033e-01 3.366684556395632133e-01 1.617581636292220182e+00 6.931191779342475712e-02 6.153159085718148402e-01 -1.469714195108078603e-01 -6.738070168295615670e-01 -3.175763035410561486e-01 -2.203234599672275196e-01 -6.700463461575069113e-01 -5.804500172945516179e-02 4.495092661872822082e-01 -1.344750438014028285e-02 -1.763415444260094389e-01 -6.197952744172939843e-01 2.593128151657361768e-01 2.752658668141930720e-01 -1.000880246502562576e+00 -3.235661769946640010e-01 5.118336234906795124e-01 -3.429782809543970856e-01 -9.373954598829944418e-01 1.109604762485448017e-02 7.772483771495466431e-01 2.639712904942712046e-01 3.667486266099331260e-01 8.126756530366063824e-01 3.137577621514516801e-01 4.937719395018582702e-01 5.511111561084638399e-01 -8.620771028638075650e-01 1.742596738889495844e-01 5.193671405456329326e-01 8.584628633648885287e-01 2.648149715390826775e-01 -1.733729545092990362e-02 3.420738661262404112e-01 -6.907744912028240813e-01 -1.287361519514175656e+00 -4.812761291534056740e-01 -6.564801732513306232e-02 7.212263803675157403e-01 -4.696855177125564551e-01 -8.289701617926555077e-02 1.415616452410748960e-01 3.912452611967343064e-01 -6.957290646255742672e-01 -3.335013465912584074e-01 -9.748474558028810133e-01 -2.736691406285498562e-01 6.557708994657268642e-01 -6.166058003464284232e-01 -1.918807372260938893e-01 6.165532192424817426e-01 1.181748708113460333e+00 -5.310508235728633730e-01 -4.925464375785606475e-01 4.511781331711302023e-01 -1.056359129170911126e+00 -8.227583333843735761e-03 2.015634304480045658e-01 -1.160764889727857296e+00 -6.793689150820487743e-01 1.500545238963059969e-01 2.620793566476122272e-01 6.046148943691914690e-01 -5.879297561745266965e-01 -1.962888993142942184e-01 -5.608658872124459016e-01 9.713325869482820618e-01 3.346053041681185669e-01 7.025421097875867993e-01 -8.558382076836767993e-02 3.734384433895598376e-01 6.509027722169097308e-01 3.513414157613602429e-01 -5.854753079116054026e-02 4.624175408753720684e-01 -4.200162766430357575e-01 -1.010687500676052730e+00 -8.278457318944117960e-01 -6.202558324532237988e-01 -6.581479083728675183e-01 -6.912420987501544101e-01 -5.591440065961947870e-01 -8.921123032144575582e-01 3.197984418228257408e-01 -7.439973428139289302e-01 -1.223861446525296853e-01 -8.233121524852113904e-01 -9.102245455165880461e-01 -7.415947988563327264e-01 1.422281610300472621e-01 8.919960345947558489e-01 1.340334759930081665e+00 1.049992670366417871e-02 -1.003178910386662404e+00 -1.923910819349334833e-01 -6.830742748454468605e-02 3.179607094047166849e-02 -3.606611924440890071e-01 1.430868154760916999e-01 -7.811533362882970843e-01 -1.109834059630835146e+00 9.675961752807905603e-01 4.300256059612624360e-01 -7.404570394447211878e-01 5.288480404412694291e-01 5.945584077471612883e-01 1.015195468018038838e+00 -9.746529377684730600e-01 -9.728454623212187125e-01 2.681373951210945239e-01 4.410102137711036652e-01 -5.276277537110728444e-01 -2.817335105760224168e-01 -3.060535152370165157e-01 4.882060133541807345e-01 7.780875019197119880e-01 7.925727978551186936e-01 3.781160968506753761e-01 -5.689188792312909193e-01 3.611313594027303064e-02 3.407406472396532493e-01 -1.081899284005302109e+00 1.781537350746353610e-01 -9.753059595156613470e-01 1.174273407633219968e+00 3.514177464077153368e-01 5.817835704079488135e-01 3.091976210863580654e-01 -1.007923791434693017e+00 -4.922573161953616161e-01 -2.846028454431401844e-01 -1.084704605680928635e+00 7.865159037305375911e-01 5.783949520589416471e-01 5.439206369026369225e-01 5.049079012876450667e-02 -9.328956400793081416e-01 3.311223768771816567e-01 -1.848433931188123436e-01 6.093188292498599168e-01 -7.233196078453916211e-01 -2.446766151242492915e-01 -8.159598442153830067e-02 -6.177538566010044863e-02 -4.862262129810361322e-01 -1.958105883464262079e-02
-2.277253602244426467e-01 6.641168672160785436e-01 -1.259252711868619423e+00 6.667956111961677035e-01 4.740887524126684571e-01 -1.515795995125878426e-01 -1.268393614244321954e+00 -6.559754667430744979e-01 1.658243608872652652e-01 -9.288141917604579856e-01 -3.415390919975825890e-01 7.881245668126420079e-02 -1.204841358234482573e+00 -4.072209581292524083e-01 7.806852203478736874e-01 -8.096189350765085058e-01 -1.314625288510530954e+00 -3.552472451572378231e-01 -8.339030754387264377e-01 -2.072840772574341683e-01 1.823455615778074024e-01 1.679444181391192559e-01 6.635836630962785865e-01 -1.060561585700963150e-01 -8.246000080527332576e-01 3.742995321107972506e-01 8.903013763660795332e-01 5.854125077371660213e-01 -1.246090074674197190e+00 1.259585591080337075e+00 -4.758845293339136751e-01 -4.207980878994743712e-01 1.200697076945177244e+00 3.937909373769186705e-01 -7.926671662508873173e-02 -6.578108250272778346e-01 -3.394398587516101462e-01 -9.769339007425296151e-01 -5.700956014271723049e-01 4.161687927220438787e-01 -8.349188599653951659e-01 2.177570989145222458e-01 1.218854894696703273e+00 -9.815868634057410835e-01 -4.939729698547520864e-01 2.718075919921256189e-01 3.561963861888686189e-01 -4.546355316489315568e-01 -9.773395335546888330e-01 5.874155395066592567e-01 -1.778544158553389432e+00 -8.078109760299089226e-01 -7.473875800482684406e-01 6.915984225592654022e-01 -1.125194457963024197e+00 2.913041094762546246e-01 6.560133335599669380e-01 -4.273331626369207270e-01 -5.082096022778397337e-01 3.107746806226178993e-02 2.752317990309132156e-01 5.462497302868314364e-01 -2.034200734922467502e-01 -4.843852019840346745e-01 3.608873997042376380e-02 8.651905167645483896e-01 1.954168897340148314e-01 -4.082931826142338627e-01 -6.453014905530235490e-01 -8.154643490105156767e-01 -3.943012551767439144e-01 4.470692361534081560e-01 2.823942884559006439e-01 4.106964243327726471e-01 1.426791698813132947e-01 -9.589115154819372044e-01 3.938227515412034974e-01 -7.566519398899795856e-01 5.767293150413739244e-01 -2.370584988590730968e-01 4.330262462722724304e-01 8.748797513898546110e-03 9.922654840601350390e-01 9.762561560845236519e-01 -2.752574219158341121e-02 -1.309821027703623963e+00 -8.306214486629878158e-01 1.313669515493664397e+00 2.905455293373100933e-01 -2.668253268405275658e-01 -1.023964141382070814e+00 -1.608858956191985490e+00 6.338729758626848731e-01 -1.005254636724085548e+00 -9.594077470698259003e-01 5.979553428441899410e-01 -8.105471333545355428e-01 7.863733985630640966e-01 1.730853747106218254e-01 1.540787520756533580e+00 8.401667512398753868e-01 2.779040950685259248e-01 4.724218326574327470e-02 -1.449511057933754010e+00 1.323626200190403779e+00 6.702658777207808338e-01 1.022672860280783746e+00 9.255446388689365644e-01 9.239811725278195276e-01 -5.713853563422477411e-01 5.508204358319909177e-01 -4.386538008348733197e-01 -1.825107488236870079e-01 -7.446752153037432542e-01 -1.871716512346366157e+00 3.134530223258576442e-01 -3.355538429334646855e-01 -1.342241963881687372e-01 -8.691063368295968983e-02 -4.267295013632015910e-01 -6.924673175568010763e-02 -8.025225920368406207e-01 1.175160880667363461e+00 4.526421350139517852e-01 2.260991064947837637e-01 -1.048307850909366401e+00 -8.738250398619146209e-02 -4.680561823453311399e-01 -8.631935046900306441e-01 -6.926302125634032913e-01 -7.088526977883831126e-01 4.408420816878488302e-01 9.382322526063873180e-01 -2.319317031733645618e-01 3.228564061470309277e-01 4.701232215734930664e-01 -6.169879026976288205e-01 -8.106664085368682215e-01 -3.584610447859563620e-01 7.016050950921368101e-02 2.120422535874310066e-01 -4.277503863204710766e-01 -1.498371918462800267e-01 5.223762562843810020e-01 -1.743262888248839904e+00 6.154138295982761742e-01 -3.358904898177844656e-01 -1.066607349274494854e-01 1.409263131475924968e+00 5.771681353113767843e-01 1.599482386233648801e-01 8.947438055862374506e-01 -1.140422256110140697e+00 6.042115254787170375e-01 -8.578296317721358921e-01 -4.294270409271226940e-01 2.580212058841552247e-01 2.160046346317348598e-01 -1.414207967483752215e+00 8.017398701546304407e-01 -6.984307517272285715e-01 -3.534227615101959152e-02 -4.717391309808736111e-01 4.448303484963123111e-01 -7.048350605194112495e-01 -1.562816645039250441e+00 3.713140374618361661e-01 -3.192264361460726563e-01 -7.163140583647551463e-01 -3.009175317223866108e-01 -3.195557018554734952e-01 1.523722430418780860e+00 -1.052752085124862624e+00 3.934104848556200795e-01 -5.345585841925527548e-01 5.886068418087304632e-01 -7.795011908661750866e-01 1.237618460468738357e+00 -7.633229649199366751e-01 3.881841336270847043e-01 -1.606956972490902080e+00 -7.444722867238090513e-01 4.834362139962012361e-01 2.763589319834188762e-01 5.601169647511204941e-01 6.981789533308278006e-01 -2.727375698981012175e-01 2.575239791204914433e-02 -7.153086269885972071e-01 4.969351698727804134e-01 1.271645255217143111e-01 1.026530350208851416e+00 -1.292981483160257739e+00 -3.326666122776124612e-01 2.039851081299469404e-01 -7.763321999436039178e-01 1.301264269458268341e+00 -8.256162389290754300e-01 -2.459604793679730783e-01 3.451469523490997560e-01 5.710977731781163858e-01 2.953445885858277387e-01 -4.140841765953141018e-01 5.654708161861378146e-01 -7.257003195070337309e-01 -6.427251104916424929e-01 5.150113921807536466e-01 -1.671078413614010827e-01 -9.918424765533296883e-01 -3.931017531590000891e-01 2.752009113893478243e-01 5.434117326822617278e-01 4.427321726928559742e-01 4.614133864249077566e-01 2.716408114214544089e-01 -7.814670164575970857e-01 4.202527888130960232e-01 -7.567211825852711016e-01 -6.881618180723120259e-02 -5.768992748083510980e-02 -2.104589138919233937e-01 -7.645225756032422160e-01 7.867686780316729411e-01 1.038657952512452992e-01 -8.194678917818073449e-01 -5.301844596001354937e-01 -4.974449068452854728e-01 -7.915596522497915233e-01 -1.085756560518490232e+00 4.439470013686482863e-01 -1.220553841053310551e+00 6.199690962953364748e-01 1.182495960854737342e-02 3.415000449602935695e-01 7.904514046161017493e-01 -8.244576524784302807e-01 5.347722960816130300e-01 6.158194970505616317e-02 4.398471785294822411e-01 -6.890295074483492321e-01 -9.199249496886572341e-01 -3.631612002950722617e-01 1.335704827178309850e+00 -1.690250962899991424e-02 3.717513124811458458e-02 -8.227508171890809408e-01 -6.493466423422681322e-01 6.704186235200062516e-01 -6.253521096195329143e-01 -9.947626698682781043e-01 9.700067644533519884e-01 1.366381703521226454e+00 -6.771100143913908465e-01 6.565652493258671285e-01 -5.000372631260536771e-01 -9.088403114085187307e-01 4.157493422495783242e-01 1.129337056092369895e+00 1.099562976318022578e+00 -7.371950109557121600e-01 1.060099419170508650e+00 -1.740190245273905978e-01 -2.419696869220127333e-01 5.863255817379917634e-01 1.368989790600353196e+00 3.245831029392737266e-01 -5.904968371026022567e-01 -1.286991485232521937e+00 -3.780204423074930986e-01 -2.515623702993375899e-01 4.917165657187632655e-01 -1.221496654696292872e+00 9.256320145726789628e-01 -3.953212659515837890e-01 1.283903561958459338e+00 3.427360534050455931e-01 -4.706782770417771156e-01 -1.108729535923031140e+00 1.105053132254153192e-01 -1.257325566330375288e+00 -1.151060957237428184e+00 9.144229933192812299e-01 4.050885019187958069e-01 -3.431255572290485278e-01 7.104317418911642035e-01 8.593138429328703309e-02 3.474957533697286549e-01 -1.393910233891294988e-02 -6.271737527773819654e-01 1.238867279829558132e+00 -3.368449537171465114e-01
-6.186315297019390896e-02 7.174861895168235248e-01 -3.708229821428038475e-02 1.692249123766425833e-01 -1.422397993685805995e+00 2.648768602083427792e-01 9.642912222720575466e-01 1.835800155830343283e-01 -9.742236978433934658e-01 4.069889952132475508e-01 -2.486900907243401807e-02 -1.042622733867482276e+00 -7.545647953020586662e-01 9.905560294842652436e-01 4.765989517105942430e-01 7.666991880915231539e-01 8.911956933538234260e-01 4.456398185672415524e-01 -1.878656647795670098e-01 -1.285637746381717461e+00 -4.961507537225159359e-01 -1.056750403046592846e+00 -4.522417911576776667e-02 -5.173727950295935463e-01 -3.623439618584629041e-01 5.645796180342131931e-01 -9.879094504066963933e-02 3.730949132953652603e-01 -5.162765456468993985e-01 1.257264293172706049e+00 1.811354571467346242e-01 -3.128598860389210090e-01 -4.926146722949030776e-01 6.477984209831650908e-01 7.253066194483482887e-01 2.129873003549129507e-01 -5.682782146464879780e-01 -8.794297458230130315e-01 7.688489265003764506e-02 -9.466680487520306997e-01 1.294806584965971230e-01 -2.625690605837153746e-01 2.072041640731205892e-01 1.403686881578501411e-01 -2.348460565123719201e-01 -2.094447619360154667e-01 -1.548287512806120758e-01 -5.816067904638000385e-01 1.395709795018036659e-01 1.177668859417561276e+00 1.036264157829720256e+00 -2.590323310548300895e-01 7.505822223942466564e-01 7.116099725719821079e-01 7.765947161318438319e-01 5.667227986258888128e-01 -4.783194357536001973e-01 -2.726849460657642110e-01 -1.797413746829781001e-01 -1.955987403614429798e-01 8.718625847241452675e-02 1.957118508937326640e-01 -6.645177661758872034e-01 8.151234258598105686e-01 -7.516866396346558177e-02 1.044551931863153399e-01 -1.134957238388118253e-02 1.277314106743089941e-02 -5.028131021536984546e-01 -8.644310814044210423e-01 -2.795461211587266237e-01 3.964237711168782097e-01 7.019044507621369222e-01 -1.481811351053499703e-01 1.465766896645995354e+00 -4.823591277375562092e-02 3.842839758581299558e-01 1.492848937305977786e-01 1.386559818020100809e-01 -2.072215923774970228e-02 -7.284641717853325149e-01 -5.562989886730432820e-01 -8.491225604263918925e-01 9.598277031056948738e-01 7.694647836657519946e-01 -3.569653167469195032e-01 9.285417822433121859e-01 -1.145236353023287162e-02 5.071815715414323966e-02 -1.296868667517377727e+00 3.049126927156784461e-01 -2.836367502639447480e-01 5.604263784937526527e-01 -2.648563850420729282e-01 -3.166557742902866290e-01 1.183514787401311219e+00 -1.687386334790392725e-02 1.913606995767654084e-01 -1.899453432233283445e-01 7.357586677049945401e-01 -9.105718860446813112e-01 4.999916148944367755e-01 -9.418782561139539267e-01 1.117272622486785494e+00 8.915287341713358515e-02 -7.370205158918506916e-01 -9.927219494427654833e-01 4.766996425451144326e-01 -5.819525654749437837e-01 -3.071860960374531158e-01 3.673107539582903813e-01 -1.703993746190842484e-01 5.148796257176064817e-01 -8.812435969796338364e-01 7.144201860232821666e-01 -5.986813274022434461e-01 -1.949674386013225125e-01 4.546057422483193444e-01 5.450840354564823187e-01 -3.042280086345999224e-01 -2.095216665055757432e-01 1.452734373383215150e-01 4.660388693136150451e-01 -1.263737102525857095e-02 -6.236273554240475692e-01 4.490941213670030518e-01 -5.896394619698205330e-01 -3.191304176438716778e-01 -2.593282274089745432e-01 -7.107257784208281803e-01 5.364137717459493970e-01 -9.881309262965098927e-01 7.850268650069688325e-01 4.713474191602486929e-01 2.176757144603759520e-01 2.376353168523082648e-01 1.311753337714995249e+00 7.200566471819475067e-01 -4.853827097962624126e-01 6.262676762722306778e-01 -2.036390922141216309e-01 7.077550688233578136e-01 1.030522530380298812e-01 -1.345647769172756414e+00 -6.963909855795011872e-01 2.945324553568326453e-01 7.071553368738749956e-01 4.508748580043688003e-02 -8.742195019397976941e-01 -3.959170927353424796e-01 6.502691116383851888e-01 -6.199195936998831424e-01 -3.687925110441781507e-01 -2.579724346483801001e-01 1.478283197383562231e-01 -1.317710941823754811e-02 5.969885823853141593e-01 -3.241581263193399343e-02 -1.056768412649065292e+00 -2.936119215274872740e-01 2.765306601536711706e-01 -4.467735520569961483e-01 -4.934193767957770760e-01 3.089195250624966471e-01 -3.188698525493245950e-01 -7.701380691486961472e-02 -3.004378606456244993e-01 -5.315340726198685556e-02 -3.711155056899219651e-01 -1.097169035764395728e+00 -9.719594928944994550e-01 -2.704184002493250638e-01 -9.412648952398822155e-01 -6.565148918763930204e-03 -1.133140708011577180e+00 -8.192480633762666553e-01 7.209629839564689613e-01 -6.598974994004276340e-01 6.483422311275629513e-01 -8.610625369747197944e-01 -4.339289751495429837e-01 2.065637574917850439e-01 -1.182513924838087149e+00 -3.325415392675817317e-01 -1.311430853000646213e+00 1.177058283156350749e+00 -4.686763186969744033e-01 3.566469750855642551e-01 5.714905874678209985e-01 -1.005565947863395149e+00 -7.769270608607589668e-02 7.797855744673896083e-01 2.916406541503887562e-01 6.965706202710932882e-01 6.445289762670968203e-01 -1.399759482987587011e-01 7.206330665582939554e-01 -4.511336355462213787e-01 5.113661121009323296e-02 -5.952574717727568965e-01 -7.759115495450050748e-01 5.536100071489337138e-01 -6.863793065386387671e-01 -1.222075626880456678e+00 -5.584205623481904857e-01 -1.787637054254020419e-01 -1.128630444121244691e+00 9.266710581988218953e-02 -1.097930496986127880e+00 -2.927644332063154137e-02 5.226242689883153769e-02 4.972238812315576961e-01 2.041199697064011442e-01 4.406363724612302191e-01 3.159989975498964099e-01 1.533035066009707514e-01 1.217652761274837347e+00 1.784803257814922273e-01 -1.289835899906098371e+00 3.954779124117608485e-02 -4.724002378258621015e-01 2.770693897544768136e-01 -1.021183554397400384e+00 3.023751607260022900e-01 1.046079259924788341e+00 -2.529258331972780161e-01 1.106793162439496214e+00 -1.748454621070699433e-01 -8.625174129269400636e-01 1.298372024609489195e+00 4.723137742801208905e-01 8.504020296640047993e-01 -3.138253746971007146e-02 6.689690502126223459e-02 7.013780621956056116e-02 2.103634127868959647e-01 7.029458236953330941e-01 -5.841328242627645828e-01 -9.033924584041601591e-01 -8.884981016461643288e-02 -3.186217469180656625e-01 -7.989361890490584983e-01 -3.993950999331163931e-01 -4.424357949621844366e-01 6.022516781652937912e-01 4.155492628077898654e-01 3.135000010162468098e-01 3.020314159530984588e-01 9.247887248629460544e-01 1.264513271273810524e-01 -1.117502993067809869e-01 1.115993946976208351e+00 2.597923495949596151e-01 -4.760653736111366552e-01 -4.029494237193899098e-01 -2.125567210086321546e-01 1.168786143589712889e+00 3.763425246957573939e-02 6.470227374033497014e-01 3.502299146994100609e-01 -1.409527459943132714e-02 3.120940373260063239e-01 4.863449451050385480e-02 -8.659281520440715862e-01 4.897473826363257232e-01 -2.395418239069513899e-01 -1.765299485442112903e+00 7.132823110857535731e-01 1.253413492759762660e+00 -7.771628434151787168e-01 -4.725342216914555915e-01 3.486995570936731736e-01 -1.190525253347247459e+00 -4.229974108157578683e-01 -6.913507636153288782e-01 -5.967987902465872185e-01 1.165156249950044243e-01 5.681867107381879389e-01 -8.914694402164775600e-01 9.250537472176519893e-01 -1.043214513886810274e-01 -1.078361908389622537e+00 6.303117568307758933e-01 -4.562426024057816831e-01 -7.722449823052152107e-02 -2.894663396192901361e-01 -5.766048665265671724e-01 6.594350667669881538e-01 2.943782020518039833e-01 6.584941638116594831e-01 -4.194776129076110416e-01
1.009705439030332608e+00 3.663272996649556690e-02 7.475931695901486540e-01 1.282779095541446202e+00 3.295447527608019733e-01 7.941426560350709485e-01 -8.986102978593766277e-01 -1.177110387790671897e-01 7.031154977693059305e-01 -1.024514847212341095e+00 1.049328961329472953e+00 -2.118980996796552829e-01 -7.108402226222577669e-01 -4.457501933819409956e-01 -5.867035318242228570e-01 -2.513830951979063588e-01 -7.593071634268564463e-01 1.618430577259478698e-01 3.454940693957465059e-01 8.789844159056438011e-01 2.595215858263579256e-01 9.478988043092259064e-01 1.241466524319029929e+00 7.030415391568545225e-01 -9.524709876487562621e-01 -2.817082045899087506e-01 -1.693073103864924378e-01 -1.207683668005638949e-01 1.167954207449649173e+00 5.776639545266202269e-01 7.953942815533171506e-01 1.646866777771648430e-02 -2.013373871921782798e-01 -2.795548106936567856e-01 -3.132894812892232372e-01 -1.112002067835222846e-01 -9.640376129905351421e-01 -9.056098463949478761e-02 -8.981569144264157645e-01 1.110860173304874854e+00 -4.058438680412715938e-01 8.108183495887113512e-01 2.573396036567088263e-01 1.871121250058103425e-01 1.322929732491600063e+00 1.591297122313384965e-02 -5.907427529370665731e-01 7.803470956739030351e-01 9.803658493406846031e-01 -7.277309797566603455e-01 4.651522061423868926e-01 -2.599933913164144683e-01 -6.758732333922189139e-02 -4.914080817453237437e-01 -3.316618550539810473e-01 -2.906386796752012409e-03 9.787498272116037512e-01 9.855672021901600022e-02 -1.392654127535836173e+00 -4.940348381664854682e-01 -5.856000244656591747e-01 5.898755432815889765e-01 -2.569762297427671260e-01 7.784463131316854412e-01 3.586056035332112479e-01 6.178183481129509991e-01 8.748444024484776094e-01 -1.268344889074883186e+00 -1.410384753696138693e+00 -3.947394341621500713e-01 -6.224053928984429884e-01 -1.884485492446937860e-01 8.462513438209120498e-01 -4.636578467202177034e-01 -1.135645443478081162e+00 6.124570016706024078e-02 2.843271156156492729e-01 1.043841971497511789e+00 3.791542709054263605e-01 6.635968467984484365e-01 6.456120158604889969e-01 -3.128830004892013128e-01 1.238628783979773690e-01 -1.985452042434588879e-02 1.425086928947117970e-01 3.728148813613475776e-02 -1.846320077164076701e-01 6.167805858640355021e-01 9.698175373345165884e-01 7.987035049889039395e-02 -8.032235078358813674e-01 1.425179491294698009e+00 -7.332818819061955873e-01 4.732951091177539649e-01 1.399474958792561008e+00 1.203544351086355046e+00 1.945783543576349861e-01 -1.028086496164059893e+00 1.838562422464706525e-01 3.478711549380286705e-01 7.620431822676258793e-02 4.157605554354588118e-01 3.072007447141243963e-01 2.464629006236254416e-01 2.545030035916607813e-01 -5.357906477405579571e-01 -3.015506062967824863e-01 7.904479779513153004e-02 1.336445773663406111e+00 1.585462685663718840e-01 -9.460990744804610442e-01 -8.360956568289766577e-02 5.397774648033716316e-01 -3.626629391682297809e-01 1.162074895359797688e+00 9.142692655264197943e-02 7.332418626871805012e-01 3.370258251296976426e-01 -5.713031815776611344e-01 -6.738855641115347739e-01 4.907027021031724612e-01 1.163887115262200567e+00 -4.132816863624603765e-01 -5.533593273182040306e-01 4.214759515081477614e-01 -1.367845492630517024e+00 9.959991831870977919e-01 -1.060409990744992648e+00 5.509286167834220871e-01 -6.421700139033847954e-01 3.117433371662689870e-02 1.451163975050349941e-01 -2.131065174563731221e-02 -4.629043777325170250e-01 -4.017101787287891135e-01 -8.112235598134581727e-01 -3.614940884355281603e-01 -9.013484132420929162e-01 -8.532653803285729088e-01 -7.493445195496355460e-01 6.011706710655059238e-01 2.888857424693768161e-01 6.775540783425522406e-02 -1.341261872576557657e-01 1.390597398606742696e-01 -7.688319255848956590e-01 -2.940684347131554133e-01 -8.924122204090775834e-02 -1.010218880460199475e+00 -4.812370196657317356e-01 -1.070020852076882134e+00 3.009479287745839837e-01 -9.415413212370586926e-01 1.106264664037881262e+00 -3.788455112501641353e-01 -2.723339799407193396e-01 5.498105418307330794e-01 1.912230074211423991e-01 3.750091889085238606e-01 -2.094890548642923456e+00 -2.806692282576413455e-01 -7.607453590475898864e-01 8.126842034330872266e-01 -6.499697134992159508e-01 -3.734711165113511755e-01 -9.949512401022411190e-01 -5.258246355047477283e-02 7.514898809348107278e-01 -1.368239561695144824e+00 2.939005050441191765e-03 -4.065338111806987009e-01 -6.326195899564178715e-01 -4.479479452990053345e-01 -5.483368245170863187e-01 1.272414373874608817e-01 3.586245287776722579e-01 7.933445797551740286e-01 -9.995030911427918996e-01 -8.607583045239876052e-01 -2.249774949595028106e-01 1.140183137619229070e+00 -8.759054931092069562e-01 -1.135697492070146530e-01 -3.595168689761794045e-01 -1.043056006834505167e-01 -1.005122698351381461e+00 -4.892949126533620019e-01 4.571595833919612217e-01 7.177499454892748432e-01 -2.396239084802803121e-01 -1.964350153263378085e-01 5.388624535034878260e-01 7.607191211014108223e-01 1.509202514887073854e-01 3.158103511793729501e-01 -7.291649548966174788e-01 -7.278865399787590729e-01 4.100566681865260854e-01 -1.405018599955788067e-02 -9.362943299644245487e-02 1.182912220756279914e-01 -1.105017079768217059e+00 2.882315872204299079e-01 -1.717328381541348425e-01 -3.711988040808091860e-01 -4.858172377752912885e-01 1.443380186267286813e+00 -5.964171954158393740e-01 -1.201397572078495735e+00 -6.543400143547583037e-01 -4.919485670891441953e-01 6.839319537689890760e-01 8.678502380441888153e-02 -8.977618790349012334e-01 -1.263145653255091094e+00 -7.654507937143097962e-01 -8.118364519754355246e-01 8.917057258655259888e-01 7.940372255431777937e-01 -4.752054827605832754e-01 -6.794343180321552600e-01 -1.112061175050225392e+00 1.532280540091750076e+00 -1.148263341879282917e+00 9.518897704220274925e-01 -7.526072915852611844e-01 -4.512405925674445872e-01 1.910573306599858412e-01 -8.893405995225610594e-01 -1.987974693268821091e-01 -9.883982983018811952e-01 1.844119704337249532e-01 -7.150900130872395177e-01 -9.491334951801977393e-01 -5.334979104104110581e-01 8.928603695720963573e-01 -5.145798315267928746e-01 -7.951346090965458191e-02 -1.530160531525967260e-01 3.969263153399399391e-01 -5.182716377727170087e-01 -7.523387850812968125e-02 7.865320962564276153e-01 1.166487678295096836e-01 -1.373476227609349287e+00 6.489213368318168529e-01 -1.015108552902245886e+00 -1.292730110604437321e+00 -8.218497435052548594e-01 2.284241199666374456e-02 -3.544812181040510879e-01 3.779749226085842295e-01 -4.307324849843781334e-02 1.483040895504320333e-01 -4.749917863521456729e-01 -4.412712556394706165e-01 -4.516695486542427473e-01 -3.224096712155202216e-01 3.078850705347025429e-01 3.089660735950584547e-01 -3.748185313218523329e-01 9.010581907980211858e-01 4.780299809479394146e-01 -5.836278878794497471e-01 2.610398396996509440e-01 -1.015754000225910669e+00 6.894336903680410300e-01 -3.213445563838428498e-01 -1.328659145902679084e+00 6.837192919900729748e-01 3.866286961434490244e-01 -3.232417802154261000e-01 -3.466655681947948264e-01 4.449763506833212534e-01 -1.159231301818810650e-01 -8.944392644186495156e-01 -4.407482832188703847e-01 6.108504271642186678e-01 4.264904019907394539e-01 -2.817367011717235026e-01 -1.209343368319900192e+00 -7.558817036312985849e-01 -1.147272122750425671e+00 -3.844927313879494268e-01 -2.276112449056132414e-01 -2.004816744064266132e-01 -9.587850013750909284e-01 9.128113058732038043e-01 -2.860152791266304395e-01 -3.404723045704057260e-01 2.046152148939406681e-02
5.659274281894930425e-01 -9.913392834424237243e-01 -2.134533872995642845e-01 5.409976683677272247e-01 -4.383548249097556360e-01 1.082103781564643485e+00 -1.461807695783192973e-01 3.353463564641077088e-01 9.099170700198306871e-01 -4.120502593553669879e-01 4.052352841364792457e-01 -1.286404689651698519e+00 -3.658029456674129209e-02 -3.217507592331380062e-01 -5.579452512520043372e-01 -4.127091285703179402e-01 1.131587342830037146e+00 5.723519530814024509e-03 -6.140106763694909153e-01 -1.684636587891950865e-01 3.468432760751615773e-01 5.584883221279596244e-01 4.891608454700795416e-01 -4.295924955327083405e-01 -1.975116909968454779e-02 -7.752626498419119550e-01 -4.994378885723168016e-01 -8.443725016405069228e-01 -1.190742106841353287e+00 7.764456004181468085e-01 6.343663876442069416e-01 6.155740550522763588e-01 -3.900101544554004374e-01 -6.255906584112738145e-01 -4.262199793754010979e-02 -2.449905087995267461e-01 1.195800517844268107e+00 2.197596690961861263e-02 5.412632616367402116e-02 -1.254972103769599334e+00 9.602403482909916965e-01 -9.767649553735744394e-01 -1.326724286030214195e+00 6.695907153025798531e-01 9.589538391461477351e-02 -1.975895027024689721e-01 -1.465631166749915781e+00 -2.907609115350119899e-01 -1.035730314564000665e+00 -5.072038555998314990e-01 3.267232967077718375e-01 -9.832702629181785392e-01 -5.078584904213222506e-01 -2.862540633052347294e-01 1.062641118360795112e+00 -4.206346589509186162e-01 1.001743684563324077e+00 -2.433002710918188705e-01 9.121383436825953872e-01 -1.913325801617658806e-01 9.084951547856796594e-01 8.662737771813768806e-01 -5.573877114166316815e-01 2.339566021113181071e-01 3.692424204188696213e-01 -4.262927407947730285e-01 1.413729068476686779e-01 4.304030763450410191e-02 -7.569423323433950301e-01 -1.410894864523994485e+00 3.133313175868281952e-01 -5.310802556000453478e-01 7.894558093446045755e-01 -1.202409147654114774e+00 -3.440683100335587552e-01 -8.439604167238371479e-01 -6.702329319973796551e-01 4.477586542417669874e-02 -1.156437652104719493e+00 -4.269799178116638894e-01 -9.506712720596979249e-01 -3.603458277617447858e-01 2.360232320301926534e-01 7.980740311357599204e-01 5.067429230653214267e-01 8.361977043139652288e-01 -1.573861673259700833e+00 -7.179217058943049290e-01 1.397475967823320842e+00 3.329562297902717294e-01 1.106541243175365619e+00 4.203958352264890452e-01 -1.479679907750438339e+00 4.958932215866942439e-01 3.993307755402630277e-01 2.997386109889093805e-02 1.279101090215291281e+00 1.000889758180051103e+00 6.731581556027136370e-01 2.557819850053739130e-01 -3.857551857213929458e-01 -1.842626853894963890e-01 3.945127334192736757e-01 1.222294749754751164e+00 9.605660142951722991e-01 -1.283326068965613187e+00 -2.471371061945104308e-01 2.646292794364871748e-01 -1.178889139399911246e+00 -1.614188414243315772e-02 -5.138428370168199866e-01 2.081771576671526125e-01 -1.219517441514562206e+00 -1.369905199182211986e+00 7.001626981354401869e-01 9.914720205689556698e-01 -7.973075392213572199e-01 -9.099971298432418809e-01 -4.927475453879896494e-01 5.895270769873689476e-01 -7.995069528476513865e-01 8.516682673874882425e-01 -7.251726998238374744e-01 2.607048303269459688e-01 -2.177921852721689533e-01 -3.352605599070899722e-01 -9.913240203878186385e-01 1.012120078240584808e-01 1.977166647351221440e-01 2.192696326058569956e-01 1.168713433802684554e+00 7.921918018352577251e-01 5.835206136182772285e-01 5.544343235558495397e-01 3.148863684780535133e-01 2.908105480440553725e-01 -7.381805322784668055e-02 2.166616460352125961e-01 1.094668981396515806e+00 -5.735632925927104386e-01 4.395848611132149864e-01 -9.186824762284419021e-01 -3.153448362656344206e-01 -1.986751645742451666e-01 -1.836278329142475574e-01 7.751479536280049265e-01 -1.252349153488102385e+00 5.950524077698746694e-01 -4.020220157592618859e-01 -4.629448169125656709e-01 -3.162270983876725450e-01 -7.828628744148566909e-01 5.799542686531670155e-01 -8.258398017416043180e-01 -6.523962816465871395e-01 1.865359242758185265e-01 1.233114011460941656e-01 -1.092711907349053213e-01 7.420399480165077444e-01 1.681792679595528472e-02 8.727415045044322195e-01 -8.076762971440611116e-02 -1.328460055793358185e-01 3.820351525252417280e-01 3.470284661748313515e-01 -1.551473653451842516e-01 -4.811089951388980435e-01 5.244333828121996444e-01 1.222080257602181197e+00 4.719785470942327588e-01 -1.662295549339852796e-01 2.375529214480370244e-01 -2.598903183513989745e-01 -1.883541687579672053e-01 3.930823027528995706e-01 -7.810366921028862874e-01 9.358788137962548159e-01 4.603683774422707292e-02 -1.061272228665030459e+00 -4.296157891182167954e-01 6.785516153888457858e-01 -8.380251821837854109e-01 -2.641296207718848432e-01 -1.161977556157900660e+00 -1.077248000595424804e+00 -8.408851826028463927e-01 -5.966919373666543791e-01 5.637065499707311078e-01 -7.475610272115295052e-01 1.043723725106881384e+00 -3.170970999834779591e-01 -7.792010854141789844e-02 -8.902235908762827499e-02 -1.545683303721713531e-02 -7.653449849636196900e-01 -4.063412322187338610e-01 4.182490919658149453e-01 3.977424699151089205e-01 -9.434650179649751722e-01 6.372062456101962313e-02 1.210213955002088726e+00 -2.480913307159931525e-01 -4.856970577591488425e-01 -1.073441352786474567e+00 1.350322632016935476e+00 -3.036531043254983020e-01 -9.129868086128639648e-01 7.828141662290673264e-02 4.408731076294650220e-03 4.061282809838933638e-01 -1.120933072981102896e+00 -8.712349351941164333e-01 -4.639140995295072956e-01 7.917912839846930062e-01 -7.747268329805322429e-01 6.586324185769132367e-02 3.476247617828953085e-01 8.214204105189504279e-02 -8.940859619195261621e-01 7.781225941799984058e-01 -7.813237374552413073e-01 -5.003634243103085577e-01 9.775310506944184796e-01 5.310750691851447991e-01 1.639557051237594820e-01 5.010387584427881125e-01 -2.769886462705285490e-01 9.522521442553031346e-01 3.230055230451052140e-01 -4.026289645596391464e-01 -5.559953434997944033e-01 -4.784717716268950816e-01 -2.002462086685869169e-01 -9.264880848773916489e-01 -7.225108002965054954e-01 2.978443424399678796e-01 1.021480641986626470e+00 8.539859677505827473e-02 6.759268520181732631e-01 -7.378691277878867139e-01 8.343701046405291311e-02 -2.699106010809834699e-01 -1.047582130042461035e+00 2.192999754306305948e-01 -7.110672531424430121e-01 -1.502404363368058160e+00 -4.524839026908252237e-01 3.041728861955874663e-01 3.299521783690262389e-01 4.264023416343306061e-01 -3.443270128916601780e-01 -3.112593007815996904e-01 5.277059963073083004e-01 2.728824895178478260e-01 1.029206080630514553e+00 6.296804915312947948e-01 -2.784371177146728327e-01 -3.979713870214274807e-01 9.545278652552292575e-01 -1.286687777895595186e+00 1.989836765822808051e-01 -1.186394073178370923e-01 7.895926627342020332e-01 -1.261064417582340669e+00 -6.432371226366250250e-01 -2.690421745708213574e-01 -5.218143766761673685e-01 -5.197393642992619300e-01 1.027489234239210347e+00 -2.701507100158722155e-02 3.328588432458788882e-01 -2.212525583905438631e-01 -1.211031015865939420e+00 5.800866426429841516e-01 1.462251667144214728e+00 -8.072050174199437711e-01 4.571864573500572515e-01 -7.592543770214557619e-02 7.785222695805074644e-02 4.378107678342373354e-01 -4.322481764838250196e-01 -1.102967255168527116e-01 9.413242725039016046e-01 -9.903383331974371928e-02 3.530747248938337912e-01 -1.263707113401642879e+00 3.210199412997951640e-01 1.068431679614967322e+00 3.370637639760494797e-01 3.362059847050863359e-01 3.562568250069721998e-01
-1.551206685065171231e-01 1.046750287243814803e+00 5.812122508840682489e-01 1.551374117235801153e-01 1.269541505205278552e-02 8.093537042128550185e-01 3.131516150956719646e-01 8.172851443795922100e-01 -1.151921773574986263e+00 -8.160700618895682101e-01 6.066653676091661174e-01 -3.398910456552113324e-01 -1.713199889891474648e+00 2.296359329570255015e-01 -3.926291010155504857e-01 8.051210583000855125e-01 -7.177544382140521595e-01 -2.634883623510028694e-01 2.575193002534211240e-01 -2.662271686020262762e-01 1.048719654415427804e+00 -1.394658816353147035e-01 -1.340852907327592547e+00 -6.370559679015501686e-01 5.988019566058518928e-01 4.385418427716843981e-01 -6.132041477683268793e-01 -2.157328053775562082e-01 6.232684945093731610e-01 2.627186209343837509e-01 -3.704496401988100485e-01 -6.890034907747725201e-01 -1.929022883158086343e-01 9.341887264593742302e-01 2.714668124469055838e-02 -2.470236277331767927e-01 -1.083608955773826654e+00 -7.239699731494533275e-01 1.092289219964132752e+00 -5.930443524424434676e-01 8.893218919519734200e-01 -1.396217204928474231e+00 8.292415839242860409e-01 1.020722673434827366e+00 -2.548592525700091316e-01 -1.176953204950815346e+00 -1.726048626899317762e-01 1.118573075173960873e+00 -4.762777263382473453e-02 4.200726828762072623e-02 -1.496773534581133269e+00 -9.052833825141692881e-01 4.452685708205972315e-01 3.015846519119769753e-01 4.884602427319518353e-02 7.742681481004689559e-01 -2.040727384068120875e-01 4.071760338574179072e-01 -8.581317703285584741e-01 9.210365620938105735e-01 -9.310467515372256031e-02 -3.673646313170226274e-01 -4.514268476353719972e-01 -5.320198638127932034e-01 -5.984042560130328203e-01 -1.340930855215334561e-01 -7.256095569875201656e-01 -7.200733128749450818e-02 8.209029578837526708e-01 -4.323139475239015650e-02 1.070702487087890953e+00 -8.745826566282207670e-01 1.444032408296552994e+00 -7.719275050584327724e-01 -1.809946441185972255e+00 6.188200537136883117e-01 -2.378632165699585271e-02 6.585132631561845251e-01 -5.186525906984879031e-01 -2.896190046592654332e-01 1.649290539931542732e-01 4.317531512000746252e-01 -3.325817572013974321e-01 -6.815061671914242059e-01 5.143913263540699221e-01 5.273479367446357591e-01 -2.910470884935863478e-01 7.670312699559119762e-01 -1.470673506349891579e-01 7.970811447843432207e-01 -2.375671452574992515e-01 -1.193011091953991354e+00 1.273942107018934511e+00 1.004130657820115902e+00 -7.555313447739099297e-01 -6.542407304519641809e-01 4.706230067165685926e-01 -1.177452281644784771e+00 -8.074431640745750594e-01 5.678930101887003090e-01 2.743571117855910790e-01 7.282925373203575914e-01 1.059883560629965027e+00 -8.424841742197217709e-01 7.231013944896685919e-02 1.241701073932124644e-01 -1.064741629417527591e+00 -6.730672117919549446e-01 -2.731819844828255461e-01 -1.703040130490761084e-01 3.937249970202451044e-01 5.801901616808292639e-01 4.876421093646050031e-01 -9.688639354608369336e-01 -3.900749913819707704e-01 -9.353775651753832854e-01 -4.764192636851088958e-01 -7.503094104069182313e-01 -2.035863170697422564e-01 -2.629493639402524785e-01 1.059728223252373314e-01 -9.033992452101166082e-01 -1.031536878115324685e+00 -7.648240098988673408e-01 4.922328219654499570e-02 2.191169493904560339e-01 6.073030893578952316e-01 3.494981446818361537e-01 7.318123600455913591e-01 5.064419619225144498e-01 1.373727869667553891e+00 6.944145188338070041e-01 1.200191288868196898e-01 7.048373751445806690e-01 1.421243114383413442e+00 8.761367563568827066e-01 1.200267247470450105e+00 -1.071472686867799284e+00 -1.454191918856479804e+00 -3.368585606379616570e-01 1.220297931423039772e+00 -2.594133066746531213e-01 5.855294425573384087e-01 9.469632433626132828e-01 -1.104973990094199721e+00 -4.255036505049481499e-01 1.019321110987072287e-01 -5.928759722847496416e-01 1.402169899686293575e-01 2.241091003635993784e-01 1.766215726256591956e-01 -1.150553880630343917e+00 1.156598192499167510e+00 -2.192052441402011220e-01 -5.768097917578893785e-01 -6.880648402626953208e-01 -1.479876364796469890e+00 -7.423421754172280229e-01 1.758431116861052055e-03 -7.303181722532334774e-01 5.152986680788566032e-01 2.542523807479202258e-01 -1.095893673781129118e+00 3.444562466825424885e-01 -9.465725369703156256e-01 -1.363272384654184322e+00 9.813583629294188038e-01 9.560766716207838023e-01 7.653458421716142768e-01 -5.325763915246237712e-01 -8.222423956531597078e-01 8.617722157513247883e-01 1.684367377419009326e-01 8.222668132247528128e-01 -1.578141803267702592e+00 -6.020583094139330127e-01 -2.368091964945179262e-01 -3.968141161205111511e-01 -2.509120111204319881e-01 1.905687311122176986e-01 3.376129665815856273e-01 9.595778067563113245e-01 2.125360532097481936e-01 -4.582391579813870353e-01 8.490410914587024349e-01 -9.707307725515567087e-01 -8.807471618775514210e-01 7.852610908182799943e-01 -2.212133803436126256e-01 -2.555617276607023980e-01 -3.705141005691051093e-01 1.145416972983197113e+00 9.528457365582033711e-01 1.674954789925306164e-01 -1.404757790398958761e+00 3.167482971097916322e-01 -7.695157752126240425e-01 9.658636181112952857e-01 -7.323495499254421004e-01 -8.971753949150732543e-01 -6.462287549658705110e-01 9.253947353413080612e-02 -2.952743409787231266e-01 -6.740093455493573193e-01 1.095486088846807871e+00 1.073526895223587463e+00 -4.599541944399699323e-01 7.080180714438126521e-02 9.186154628111129483e-01 -1.767968743950923682e-01 1.189181557683211432e+00 1.715305560703117571e-01 5.956132018621712598e-01 -6.714116372839817881e-01 -2.155291570854490080e-01 -2.680483183480246168e-01 1.613741949026533187e-02 1.026145473240268835e+00 -2.460711866726263478e-02 4.035878970717097225e-01 7.830246890332289711e-01 4.152181263804261557e-01 1.260897332125710812e-01 7.011346832025247000e-01 1.569055982286913009e+00 -1.447344320729524680e+00 -4.947886690255050013e-01 -9.976975053401668792e-01 6.546874087296693512e-01 -6.332078457840868424e-01 -5.123259001044997429e-01 -1.058620860755014270e+00 -4.203741370208991524e-01 -3.969516057238284268e-01 6.584147693152623271e-01 1.059748967143322895e+00 -1.212917357090905757e+00 1.731644260870801588e+00 -3.918072168042061043e-01 5.397750980638116314e-01 -7.642411838599397766e-01 -2.595691086820105589e-02 1.240139354298178898e+00 1.381779021984403277e+00 8.956121442086025786e-01 3.660098840694723799e-01 -1.356898718005523197e+00 1.399304074779418761e+00 6.582058021482174448e-01 -8.304974526583471794e-01 5.086714989337922654e-01 -1.102863957273098938e+00 3.501945914488093781e-01 -7.763651437178599179e-01 5.714627657037671948e-01 -6.676763512712086124e-01 1.323845172730064228e-04 1.725908495464711645e-01 -5.331985642682206539e-01 1.052663295862489079e+00 -5.061063804604153393e-01 -4.663008398314185121e-01 -1.156620424126242552e+00 1.281161629819078884e+00 -4.637564330540199786e-01 -4.377046747579222963e-01 2.478218544057193551e-01 1.766155047451430260e+00 8.399334505964665132e-01 -1.996068063317886887e+00 2.431754325302658282e-01 -1.140991279080160847e+00 2.380072184473975075e-02 3.163859858532760416e-01 6.183263792343357546e-01 1.208439936252035496e+00 -4.135391333496412081e-01 -6.865667168797202624e-01 -3.004106747468019978e-01 -5.275374796812992012e-02 -1.444846690059508332e-01 2.312662331191259191e-01 -6.245493537869408751e-01 -2.864720305106223108e-01 -1.281002924029142342e-01 3.502449825865353028e-01 4.146732439654063906e-01 1.111080453308158411e+00 3.169898428423263970e-01 -8.884829476667989168e-01 -1.224326977394643579e-01
3.003543552461187538e-01 -7.189928180578464278e-01 7.828633353309355503e-01 -3.585916079827164427e-01 6.285724766792819551e-01 -2.402919605766108690e-01 -4.189853616452822727e-01 -4.853748325390079832e-01 -7.653987534457927788e-01 -6.675779960630414678e-01 -1.520041452584006469e+00 -1.594752586006792650e-01 6.895654294489972358e-01 7.262295058341258214e-01 9.851594068709588203e-01 -4.713867914116567914e-01 -1.412225206160458157e-01 1.333314422975415914e+00 -6.329778145270279488e-01 8.815077391082313252e-01 -1.219243281576772864e+00 2.161923977867926672e-01 4.939563099224171527e-02 -6.262037645921488815e-01 1.038551844874183450e-01 3.809630393124148751e-01 2.476257724055019871e-01 -7.857673351747417323e-01 6.793208236152979973e-01 -1.121189366252770325e+00 -1.172925587144291182e+00 -1.115180134445929561e+00 -1.233412477305819044e+00 1.057168284660960911e-01 -3.701769224205197495e-01 3.483064990444250664e-01 2.031669231912166806e-01 1.000668866489670267e-01 5.425391837211259727e-01 4.475923057515745237e-04 -1.807586035338171471e-01 5.542198494252801311e-01 -1.473100610432899749e-01 -5.289100620751244763e-01 5.884477009781224899e-01 -3.450376037210008406e-01 1.694657564841008268e+00 -1.113450022572330056e+00 2.213209671665106182e-01 -9.935704464269582425e-01 2.529252952031512541e-02 -8.363697373068276208e-01 7.117844410147924905e-02 -9.727266431634934429e-01 1.477571413853403959e+00 -8.367792419624059397e-01 -4.581267594296347667e-01 -1.176097356620935841e+00 -1.022742635923660437e+00 2.021008406729185025e-01 -1.101321523878483755e-01 5.439340294787414765e-01 9.892355156808861905e-01 1.302225623147833800e-01 -1.009048048516589136e+00 -6.924968370822481845e-01 -4.539095579379488488e-01 -2.194901661599915899e-01 -4.291862103783040672e-01 7.898851288299755247e-01 3.801061366182844625e-01 7.456345615382065084e-01 7.614746385995972977e-01 -8.892296672654049772e-01 8.320748851709031113e-01 -9.006789186133624669e-01 -7.720077545214411030e-01 5.761475747397142300e-01 -4.950663959794313063e-01 4.238803801240781377e-01 5.789600008857103131e-01 -2.226264467184502216e-01 -1.362644270631041099e+00 3.858464805902907524e-01 1.329637285906482280e-01 -3.596257379821612976e-01 1.616724935827780762e-01 7.516223024603931879e-01 1.428184335634555824e-01 -1.358164410549993706e+00 8.751919290538402452e-01 3.870286815606777814e-02 -4.100768664885770520e-01 6.316849523667090738e-01 2.589490262500294127e-01 -3.004164535658447321e-01 -3.236492141452779747e-01 -1.830371029721772069e-01 -9.026837094016938456e-01 -1.046534865652832824e+00 3.150056352578085583e-01 -7.255333218416112340e-01 -1.265171830306722478e-01 5.973965993981333877e-01 -1.031864486161117034e+00 -1.334082611590792000e+00 2.186853262731583147e-01 1.268457160490910507e+00 -9.431665035855568702e-01 6.632482441393162675e-01 -3.687283714927547251e-01 9.583340145353058670e-02 -5.272395816219416220e-01 -6.298334932871747505e-01 -7.490925901407791132e-01 2.713336160998570112e-01 1.475856008443877376e-01 2.123209148057159101e-01 -1.165823955094859476e+00 9.868808762454397421e-01 -2.816135669002653788e-02 -7.759176857891774137e-01 5.721429351867124424e-01 1.124000609143978480e+00 -4.885667807240182126e-01 -8.956674001616872494e-02 1.158366019116597034e-01 -6.386193583215811209e-01 1.492904448433522158e-01 9.843400783858450298e-01 -3.308422450786866476e-01 1.423424976585755397e-01 3.831484008591833912e-01 1.195812149957572457e+00 -8.846158281687394043e-01 -5.511723516383053578e-01 -6.372388149128652701e-01 -7.402309807260870622e-01 -5.989391938562889095e-01 -1.269740786231938312e+00 4.926621876119218202e-01 1.203551546340727585e+00 -2.124726861258133259e-02 -4.475328031829975406e-01 1.240139234174532756e+00 -5.835771652065110393e-01 4.511281358254818352e-01 3.589633508295480557e-01 6.346977808449175140e-02 -8.370402951381761270e-01 3.011880417361013085e-01 -2.683051543562582908e-01 -1.463392934607891105e-01 2.693189735100170457e-01 -3.404945029451620919e-01 3.926309114571752690e-01 -1.096293680868229981e-01 7.153752174685084064e-01 6.892617443553213930e-01 5.252071815965074775e-01 -1.085125341600256810e-01 -3.783589524265060788e-01 4.385315686298652538e-01 5.446096553486650116e-01 3.000113099642921499e-01 -8.812392495043304130e-01 2.122537481802672654e-01 -2.811948678782955624e-01 -3.153662277381781842e-01 -8.775153418893513746e-02 8.036192909164251164e-02 7.869378039920303658e-02 1.115565828986701813e-01 -7.522830460833966892e-01 -5.702461850201686611e-01 1.005804459217011004e+00 -2.629614578970655425e-01 2.548154475514931017e-01 -3.953184224353212817e-01 9.170694551435136788e-01 7.572119628807576497e-01 -7.710181809646919904e-01 -1.926670133473926683e-01 5.609129161346694259e-01 -8.776678217716009645e-01 4.310082220522582497e-01 -3.560583998191720334e-01 -5.855847332285850637e-01 -5.401187085174947722e-01 -3.130896785971460927e-01 1.527359958084596459e-01 -1.123893455007021647e+00 -2.311833410499882901e-03 3.921043114402675278e-01 6.108962655827537835e-01 3.689479912131742312e-01 -1.383698084364461733e+00 1.404993817144118695e-01 -2.366938589621941924e-01 -4.553586937621483255e-01 -4.007491829689306395e-01 5.605611369502484509e-01 8.610127015349319235e-01 -8.665501643617808947e-01 -8.362463115213265852e-02 -9.117164711329255322e-01 -7.858889655092535786e-01 -7.970560224605696131e-01 7.810227293474875099e-01 -6.926720987328564005e-01 -3.297592373212854949e-02 -6.092702194144494765e-01 4.644037144153269625e-01 -7.760469611632369036e-01 -3.767448201831221088e-01 -4.412653969423137590e-01 -1.288825722042019895e-01 -1.297510375806872451e+00 2.568778786652647916e-01 -6.047034518000686809e-01 1.598621459481827101e-01 -1.910395452419486051e-01 -7.071332278650880321e-01 -2.590019622642457664e-01 -6.784237738623219993e-01 1.000109625268427171e+00 -5.389674041778546032e-01 -7.407117167664510893e-01 -1.318864000362890865e+00 1.565707064665243231e-01 -1.954426405245817955e-01 -5.569497139854986401e-01 1.972972799157450829e-01 7.344083628048425627e-01 -9.490097298241919610e-01 -2.262599463308154479e-01 3.440593808257817465e-01 -5.258577363441009345e-01 -3.191856237531206508e-01 3.492820289987155769e-01 2.513870209274127743e-01 4.499249522942870283e-01 -1.370223989029268341e-01 -8.749972774743930426e-01 5.423435268790989250e-01 5.716428743262821355e-01 -7.139301783468264828e-01 -9.518492489161162196e-01 4.700266746345223567e-01 -3.709860131522879079e-01 -1.130782574779157779e+00 -1.259657488504886569e+00 5.915868046941489267e-01 2.680937760617944643e-01 4.146315280277697024e-01 7.706298817916165111e-01 7.713880076307023416e-03 -5.588743093597284828e-01 -1.012406398074058966e+00 -1.609354776776119156e+00 8.395246510299140263e-01 4.101309400308405517e-01 -2.700009030784447650e-01 1.216894502321730798e+00 -1.149487698183541129e+00 -3.184547950111288883e-01 3.271088122249702357e-01 -1.193684006068303161e+00 -6.526853504193673716e-01 -3.521525861818842751e-01 1.198297375222821648e+00 -4.133763379323687204e-01 -7.995121787243858469e-01 -7.753785233090083606e-01 -1.492637352271320328e+00 -7.097515718232995097e-01 4.934696131892307713e-01 7.367483296743915222e-01 -2.717327098178548006e-01 -1.362486000536371700e+00 -3.710550548263171766e-01 1.782005523471770492e-01 -1.152081563738742709e-01 2.686483377464576883e-01 -7.239281684247006465e-01 -8.678731999632972594e-01 -1.354237209340289017e+00 7.137757973882419282e-01 2.675936219980880326e-02 -5.184173219695229484e-01 5.579917639143707753e-01
-9.421518668474099245e-01 7.766171881160971457e-01 -1.572681951386855626e-01 1.121860156089503763e-01 2.098885843757840874e-01 6.763683337248618255e-01 -4.943151980711261162e-01 7.563157958011725857e-01 -3.427000915839872319e-01 -1.549929200822700581e+00 4.482513807824333174e-01 -6.723526171408499286e-01 -1.745648180296737184e-01 4.569577279679696846e-01 -5.042089222070523791e-01 -6.252410773529453077e-03 2.548830295178790561e-01 -9.795432835070128075e-01 -1.105091195909259083e+00 -1.732846573465522955e+00 -6.881464711008362933e-02 -1.807727174277831139e+00 6.913942441945074568e-01 -8.640546048433659365e-01 -3.135111596981480786e-01 3.903421308410575663e-01 -6.801840185014469409e-01 4.855642615456571831e-01 1.148328431311661735e+00 -9.922692456967092678e-01 4.528160025458578541e-01 1.111268447580246121e+00 -2.391178966361503511e-01 -1.794409471205519413e+00 -4.056930426122413169e-01 -1.739396922492052466e-01 8.558737273891335873e-01 -1.193965151770438188e-01 -3.176492057097256572e-01 1.218969354185196252e+00 8.446304553228402012e-01 1.754241123510219325e+00 8.165737748996997336e-01 -3.726758443491386130e-02 -8.070379976184356707e-02 -2.335839193413664083e-01 1.959227379671411862e-01 -4.335422528142942045e-01 1.227478015357110069e-01 -2.132010239132998974e-01 -6.880933943846546663e-01 -8.444088820918724259e-02 -1.618759215451525402e-01 -1.216095393650319240e-01 1.235646247405723930e+00 -7.040548855565562647e-01 -5.182095601521787831e-01 -1.849937320599684965e-01 -8.190997053720242560e-01 8.292447276701360170e-01 -2.504187615855586052e-02 5.120800449472758809e-01 -4.496728255468157576e-01 -2.585217246219874143e-01 6.025582073625074253e-01 -1.033248481723257450e+00 -7.677722738896917976e-02 -1.256165012405757175e-01 -9.370522931299561931e-01 -5.858460773093471241e-01 -9.973009728555882747e-01 1.026400056684820594e+00 -3.742954497717461693e-01 -5.084695098557523441e-01 -1.618078246100784545e+00 -4.193706029448304728e-01 -9.495059265848739827e-01 -2.987019617710001684e-01 -4.423366050637176361e-01 -3.930505048626942166e-01 -1.467866395904218635e+00 1.090876795221568385e-01 -1.800820280934381235e-01 4.150543169018127559e-02 -4.038863435811843594e-01 7.439719199662898630e-01 -1.512720571265792291e+00 -1.802860334618970051e-01 2.883974433488941114e-01 -5.172475174768538242e-01 -8.976056461503713058e-01 1.688365476517273605e-03 -3.671005255308975590e-01 1.019139123849708506e+00 3.790403164294166571e-01 -1.122059181067977418e+00 -6.950081895053689118e-01 -5.502249161724050985e-01 2.360264794929218812e-01 7.968462301930991920e-01 9.616889559085392003e-01 -1.078057636304195599e+00 -9.799280820227129762e-01 -4.687057665272193474e-01 -6.363171081330866174e-01 1.314163050102403529e+00 1.663337907425787465e+00 -4.129471553376066750e-01 -1.122349271729496945e+00 -6.345334582660708822e-01 -3.502959756416469395e-01 3.590150487619362951e-01 -7.282365523427168919e-01 -1.996519624725665853e-01 -1.307472229754460313e+00 -1.618201034020327889e-01 -8.343827918432059620e-01 -3.249040297613817740e-01 4.718824641368360995e-01 -3.748216974487849074e-01 2.676762952774909277e-01 1.452816710058676852e+00 -3.073393147820387139e-02 -7.986620663682431065e-01 -6.655279103288207487e-01 3.741992879163167918e-01 4.168398195233789100e-02 -8.826529650614726163e-01 1.319633110640114237e+00 -4.265255916694085658e-01 -5.769103131433823695e-01 -1.520070226156421400e+00 -2.099539152296999722e-01 1.292625860763173262e-01 -1.508973529741283182e+00 -8.767177223645379325e-01 1.445073256947543072e+00 7.858432714328918989e-01 -6.999398481314738074e-01 1.278284405043828564e-01 1.077388186743993420e-01 -1.128412329342848019e-01 -5.634658932516714014e-01 3.507003215508439631e-01 -9.686545565262363322e-01 1.391251375696629100e-01 -1.906927519568507590e-01 -3.796300306553530152e-02 -5.865814940862404958e-01 -5.204090047297110777e-01 1.966121605917543480e-01 -2.901231117766677192e-01 -7.912256272830937576e-01 3.543139604120471575e-01 2.750145309137604424e-02 -2.764024228959829355e-01 1.644823250782713631e+00 5.215658298362884082e-01 1.028822953230299708e+00 8.633383073609540714e-01 5.516102100782410700e-01 -3.456537378307399933e-01 4.787224706113636929e-01 -5.424562551812095457e-01 5.470226433254878895e-01 1.232752141337937202e+00 -3.163436897165602946e-01 -1.026361373709943070e+00 -9.234569193002781784e-01 -5.975985782051385087e-01 8.308077078163125240e-01 -3.517239277193118241e-01 -8.539024943209554408e-01 3.320443052736089529e-01 6.351956211875200431e-01 1.600849500403397352e-01 -1.079319357230214660e+00 -7.111737331113479055e-01 6.527351543731096939e-02 -5.026824789338297794e-01 5.611209281204961874e-01 2.762413780840026201e-01 -5.615926294894038051e-01 6.742709898108629508e-03 -6.701947830086220081e-01 6.906198624629089622e-01 -5.835248803691277519e-01 5.974490125165079490e-01 -6.035926629338608240e-01 9.148566811138419963e-01 -3.357413667925669420e-01 7.318227748586658699e-02 -7.691807134049699624e-01 -1.062520436394716716e+00 -3.359214033965268742e-01 2.008790901404208240e-01 1.411086055241903559e-01 1.114669280265384588e+00 1.075068021365966686e+00 -1.046228860829879759e+00 -7.215125376058283413e-01 1.690792683599412136e-02 6.471593812966555115e-01 -6.075042774048396987e-01 4.585065010510827044e-01 -4.320177319483326506e-01 -9.160897854736769208e-01 -9.307333974228415574e-01 5.295205820539993224e-01 1.209206389148883787e+00 -9.349292447714997734e-02 -9.457349030100663523e-01 -8.459555508438028060e-01 -3.887806073926850514e-01 9.900429008371647299e-01 -1.076910749768627933e-02 -3.543716066827695133e-01 -9.438264035496559679e-01 3.215301080626817298e-01 9.282148556924743055e-01 8.078390049119064109e-01 1.398541930153134882e-01 -6.968973564787827035e-01 -3.976343507912555864e-01 -2.885893966176342196e-01 -1.672489839924732602e-01 4.714203409249349552e-01 -9.708515899999653476e-01 7.692747792372690852e-02 -1.242896281264585623e+00 2.024553812720752272e-02 -2.170660432881154345e-01 8.767421534241645054e-01 6.334793974014918394e-01 -7.047016524626226186e-01 -9.489612963741520524e-01 -9.865870785081818362e-01 -1.656632127365558760e-01 -1.545531873483687868e-01 7.306113746024165412e-01 -8.770198426647010659e-02 -7.493149113238716241e-01 -1.751436055279955717e-01 -2.801799867162774738e-01 6.096026815107136176e-01 7.709215219779287365e-01 2.220568362470970170e-01 -8.301982502096201533e-02 5.654134321243683425e-01 1.696093874130995827e-01 -1.074282656480329168e+00 -1.435866637140678082e+00 1.739154428626343007e-01 -5.046281644264771771e-01 -8.782257246236584436e-01 1.057285253317710616e+00 -8.420200075044207422e-01 1.090415083414787656e+00 -2.903474949386972148e-01 2.284340793574479722e-01 1.377918446710948708e-01 -2.517508268379912151e-01 -3.806499990083974105e-01 1.006959172484380299e-01 -2.076005011397002442e-01 -4.920125893033162195e-02 1.172589129084327247e-01 3.596753205058426661e-01 -5.014337267929247499e-01 4.293943128234455897e-01 2.206486001087074045e-01 -1.735878259651663647e-01 -1.697148990500714216e-01 5.745168504750229888e-01 -8.010728788363927211e-02 -7.724993887332111120e-01 -7.153006755575956888e-01 2.203025184473963172e-01 1.985495609568876718e+00 3.749229575531752845e-01 2.115214542779047524e-01 -1.165925873675687230e+00 -1.319401123599533543e+00 -3.028932655824537190e-02 1.344846550585494516e-01 1.468571297253086216e+00 -8.741433867628167764e-01 8.887949379052543231e-01 -1.045490979298858925e+00 -3.268279006864652225e-01 1.710695394487594889e+00
